//Numpy array shape [200]
//Min -0.158203125000
//Max 0.384765625000
//Number of zeros 2

#ifndef B2_H_
#define B2_H_

#ifndef __SYNTHESIS__
bias2_t b2[200];
#else
bias2_t b2[200] = {0.3847656250, 0.1699218750, 0.0722656250, -0.0175781250, 0.0722656250, -0.0039062500, 0.0585937500, -0.0527343750, -0.0351562500, 0.0703125000, 0.0761718750, -0.0625000000, -0.0078125000, 0.1816406250, 0.0468750000, 0.0996093750, -0.1191406250, -0.0996093750, 0.1230468750, -0.0527343750, 0.0996093750, 0.0937500000, 0.0292968750, -0.0039062500, -0.0781250000, 0.0078125000, 0.0332031250, -0.0312500000, 0.0859375000, 0.2421875000, -0.0273437500, 0.0761718750, -0.0039062500, -0.0234375000, 0.0878906250, -0.0273437500, 0.0312500000, -0.0039062500, -0.0644531250, -0.1035156250, 0.0585937500, 0.0449218750, -0.0878906250, 0.0312500000, -0.0214843750, 0.1035156250, 0.0664062500, -0.1191406250, -0.0136718750, -0.0117187500, 0.1562500000, -0.1054687500, 0.0410156250, -0.0175781250, -0.0292968750, 0.0117187500, -0.0273437500, -0.0078125000, -0.0371093750, -0.0488281250, -0.0507812500, 0.0761718750, -0.0351562500, 0.2167968750, -0.0273437500, -0.1171875000, 0.1347656250, -0.0644531250, 0.1113281250, 0.0664062500, -0.0644531250, -0.0214843750, 0.0449218750, 0.0117187500, 0.0000000000, 0.0390625000, 0.0527343750, -0.0332031250, 0.0566406250, 0.0292968750, -0.1308593750, -0.0957031250, 0.1484375000, -0.0644531250, 0.0527343750, -0.0390625000, -0.0078125000, 0.0136718750, 0.1093750000, -0.0976562500, 0.0292968750, -0.1015625000, -0.1210937500, 0.0117187500, 0.0937500000, 0.0507812500, 0.0898437500, 0.0058593750, -0.1054687500, 0.0390625000, -0.0390625000, -0.0058593750, -0.0058593750, -0.0976562500, -0.0664062500, -0.0234375000, -0.0410156250, -0.0410156250, 0.0312500000, -0.0097656250, 0.0234375000, 0.0273437500, 0.2265625000, 0.1171875000, -0.0429687500, 0.0488281250, 0.1328125000, -0.0156250000, 0.1347656250, -0.0703125000, 0.1152343750, 0.2324218750, 0.0625000000, -0.0468750000, -0.0292968750, 0.0253906250, 0.0097656250, 0.0234375000, -0.0820312500, 0.1035156250, -0.0312500000, -0.0039062500, 0.0820312500, 0.1093750000, -0.0839843750, -0.1328125000, 0.0488281250, -0.0976562500, 0.0253906250, -0.0507812500, 0.0312500000, 0.0800781250, 0.0136718750, 0.0097656250, -0.0214843750, -0.0058593750, -0.1406250000, -0.0195312500, -0.0410156250, 0.0390625000, -0.0019531250, 0.0585937500, 0.3105468750, 0.0332031250, -0.0664062500, -0.0449218750, 0.0058593750, 0.1445312500, -0.0156250000, 0.0664062500, 0.1328125000, 0.0000000000, 0.1113281250, 0.0429687500, 0.0937500000, 0.0898437500, 0.0996093750, 0.0644531250, 0.1855468750, -0.0644531250, 0.1406250000, -0.0917968750, 0.0039062500, 0.0410156250, 0.0996093750, 0.0292968750, -0.0371093750, -0.0312500000, 0.0742187500, 0.0351562500, 0.0214843750, 0.0292968750, -0.0371093750, -0.0156250000, 0.0195312500, 0.0468750000, -0.0410156250, -0.1289062500, 0.0449218750, -0.0273437500, -0.0292968750, 0.0507812500, -0.1582031250, 0.2207031250, 0.0078125000, -0.0976562500, 0.0683593750, -0.0117187500, -0.0429687500, 0.1015625000};
#endif

#endif
